<?xml version="1.0"?>
<opencv_storage>
<opencv_ml_ann_mlp>
  <format>3</format>
  <layer_sizes>
    20 10 17</layer_sizes>
  <activation_function>SIGMOID_SYM</activation_function>
  <f_param1>6.6666666666666663e-01</f_param1>
  <f_param2>1.7159000000000000e+00</f_param2>
  <min_val>-9.4999999999999996e-01</min_val>
  <max_val>9.4999999999999996e-01</max_val>
  <min_val1>-9.7999999999999998e-01</min_val1>
  <max_val1>9.7999999999999998e-01</max_val1>
  <training_params>
    <train_method>BACKPROP</train_method>
    <dw_scale>1.0000000000000001e-01</dw_scale>
    <moment_scale>0.</moment_scale>
    <term_criteria>
      <epsilon>9.9999999999999995e-07</epsilon>
      <iterations>30</iterations></term_criteria></training_params>
  <input_scale>
    2.3482018348700649e-04 -5.9861973422745943e-08
    4.6670964464521535e-04 1.0301238798610155e-09 5.3680508321738080e-04
    4.2785895490734432e-09 6.8288919502038873e-04 1.4884109269462642e-08
    7.0047181350367451e-04 -4.3726675864798500e-09
    7.7553911492835492e-04 1.5302576145487367e-08 9.0091725829006620e-04
    -2.2364581410103744e-08 9.4993912536615790e-04
    4.1870671823804772e-08 9.9337662213060574e-04
    -7.0787407860069307e-09 1.0707861436938643e-03
    -7.9100044066067552e-09 1.1064340507729174e-03
    2.5039927509277346e-08 1.2167493288303968e-03 3.2122771411643188e-08
    1.2791824774671572e-03 -3.2482606493401563e-09
    1.3846687676431063e-03 1.5123063844621030e-08 1.5743714458172678e-03
    2.8481878995305109e-08 1.6250663811648307e-03
    -3.0199340247877800e-08 1.6782357140712710e-03
    6.7682531013659550e-09 1.7512422878121488e-03
    -1.5978257789621377e-08 1.8229730474303638e-03
    -4.1429838922184863e-08 1.8947104830399852e-03
    -6.1822680765978036e-08</input_scale>
  <output_scale>
    5.2631578947368418e-01 4.9999999999999994e-01 5.2631578947368418e-01
    4.9999999999999994e-01 5.2631578947368418e-01 4.9999999999999994e-01
    5.2631578947368418e-01 4.9999999999999994e-01 5.2631578947368418e-01
    4.9999999999999994e-01 5.2631578947368418e-01 4.9999999999999994e-01
    5.2631578947368418e-01 4.9999999999999994e-01 5.2631578947368418e-01
    4.9999999999999994e-01 5.2631578947368418e-01 4.9999999999999994e-01
    5.2631578947368418e-01 4.9999999999999994e-01 5.2631578947368418e-01
    4.9999999999999994e-01 5.2631578947368418e-01 4.9999999999999994e-01
    5.2631578947368418e-01 4.9999999999999994e-01 5.2631578947368418e-01
    4.9999999999999994e-01 5.2631578947368418e-01 4.9999999999999994e-01
    5.2631578947368418e-01 4.9999999999999994e-01 5.2631578947368418e-01
    4.9999999999999994e-01</output_scale>
  <inv_output_scale>
    1.8999999999999999e+00 -9.4999999999999996e-01
    1.8999999999999999e+00 -9.4999999999999996e-01
    1.8999999999999999e+00 -9.4999999999999996e-01
    1.8999999999999999e+00 -9.4999999999999996e-01
    1.8999999999999999e+00 -9.4999999999999996e-01
    1.8999999999999999e+00 -9.4999999999999996e-01
    1.8999999999999999e+00 -9.4999999999999996e-01
    1.8999999999999999e+00 -9.4999999999999996e-01
    1.8999999999999999e+00 -9.4999999999999996e-01
    1.8999999999999999e+00 -9.4999999999999996e-01
    1.8999999999999999e+00 -9.4999999999999996e-01
    1.8999999999999999e+00 -9.4999999999999996e-01
    1.8999999999999999e+00 -9.4999999999999996e-01
    1.8999999999999999e+00 -9.4999999999999996e-01
    1.8999999999999999e+00 -9.4999999999999996e-01
    1.8999999999999999e+00 -9.4999999999999996e-01
    1.8999999999999999e+00 -9.4999999999999996e-01</inv_output_scale>
  <weights>
    <_>
      -7.3142814920459168e-02 1.5180454692201266e+00
      -1.5159467192536908e+00 3.2770204438293238e+00
      3.6737790067109616e-02 4.0779564655670247e-01
      -3.5002058955139064e+00 3.7209644074925272e+00
      -1.9921066749870970e+00 -2.9642357037678518e-02
      2.6833494657308523e+00 5.0335457190848558e+00
      -3.0623930656010057e-01 -8.8342474606833699e-01
      -6.0267551697450361e-01 6.5502333691857417e-01
      4.5971565641441031e-01 1.5742220002288887e+00
      2.0739619660572739e-01 -1.2598630897779948e+00
      4.6542809862941553e-01 -5.8698315692921033e-01
      -2.5516145055710533e+00 6.1287958703382295e-01
      1.1596742094651591e+00 -1.1255892573830446e+00
      8.6051674563462677e-01 -1.4198182255644745e+00
      1.5444587010338897e+00 4.3373163011691929e-01
      -3.8848831755982882e+00 -1.3185763826499932e+00
      -1.6800241032086412e+00 6.5929261349389789e-01
      -4.8722931405704504e+00 -3.0812243307658789e+00
      -5.4395773178517581e+00 -8.4309176257408608e-02
      1.0276936600894826e+00 -1.6673499073414697e+00
      -1.9809119355327964e+00 -2.6283646101333500e+00
      -4.6970660726663924e+00 5.0796665368418159e+00
      2.6871617848654101e+00 -2.0881139238636623e+00
      -2.3161115222446584e+00 1.7055315834292677e+00
      3.0647922784988704e+00 5.3044300435024159e+00
      -1.0627956553165692e+00 -1.1245155623407375e+00
      5.9590988074679530e-01 -1.2666256105028666e+00
      -3.1037704665177780e-02 1.8162790715264319e+00
      2.5769529415314620e+00 1.8432078248252315e-01
      3.2238874821612606e+00 1.0848815012367412e+00
      -9.1453654501377046e-01 -1.5353517204956715e-01
      5.7251079967832708e-01 -1.5273118816101154e+00
      7.4102264517110772e-01 8.0045309221933647e-01
      8.8016469832497135e-01 2.0757300887765520e-01
      -2.2433580870240961e+00 7.9579102242930999e-01
      1.1202514477507437e+00 1.7146728399202542e+00
      5.9667730028610022e-01 -1.2023911017406228e+00
      6.6642450656433772e-01 9.6884303544701467e-01
      1.1292433513817171e+00 6.3198771667197473e-01
      1.9043673034669863e+00 7.8695186492053326e-01
      -1.3663510344134633e+00 -2.4584217619827875e-01
      1.5827338904207558e-01 -1.2134593389790271e+00
      -5.6692960129910130e-01 2.2043430344307460e+00
      1.3300033061397825e+00 7.1050945181605207e-01
      8.4520163334830667e-01 1.3473373234595072e+00
      -3.3709227240780155e+00 -3.2655955061136992e+00
      1.6015636449722146e+00 8.6673746702058729e-01
      1.6528963836406241e-01 1.6534358392324682e+00
      6.4359111326559237e-01 -4.7203582269610678e-01
      -2.1917751236093101e+00 7.3527530488581527e-01
      -7.5019586934118407e-02 9.4934085337581797e-01
      1.0892878941477609e-01 -1.7035201916162583e+00
      -8.7064273261519431e-01 -1.0003151743918586e+00
      -3.3583585612728442e+00 1.4839626996344784e+00
      -2.4582300480860857e+00 -9.4306377313490841e-02
      -3.2669216972524606e+00 -5.4050536706857344e-01
      -1.1654382291162135e+00 2.2581832593190998e+00
      2.8172230522430897e+00 2.1438433878260144e+00
      1.1797288889434212e+00 -7.8222406963180913e-01
      -1.6119550469468600e+00 1.1266369781095726e+00
      2.0417909780393479e+00 -2.6084897852872655e+00
      1.0110378333028862e+00 -1.3178557885764219e+00
      -1.3118228088504431e+00 -2.5263494069961454e+00
      1.6876249810395265e+00 1.9288505239868256e-01
      -2.0948504298368129e+00 -4.3508941822392009e+00
      3.2384022904610565e-01 -1.6531512913570183e+00
      1.8091725591293055e+00 -3.0280258523822934e-01
      -1.5034515435563005e+00 1.2195448934634951e+00
      2.7494277393386229e-01 7.9170107352229346e-01
      -1.3324685007528034e+00 -1.1370066704923150e+00
      5.1965206874852243e-01 1.0970222393028923e+00
      -9.5318541792162570e-01 -6.1694794971402167e-01
      -8.4527436175868165e-01 -2.0538212025027107e+00
      -5.4527828960602986e-01 7.7155976167329415e-02
      -2.2419551139695084e+00 -2.1832932442042501e+00
      -1.1064876957734830e+00 -8.0414376918834507e-01
      3.1174196066710808e-01 9.1148369533059592e-01
      -1.4802539132690202e+00 -1.0952667222057652e-01
      -7.5065633517709207e-01 1.5142405184875971e-01
      -9.9569949097485300e-01 -1.8227833780592757e+00
      -1.1502424531546329e+00 -9.1880694713499245e-01
      8.7655788601586648e-01 1.1926100777646482e-02
      -3.7731338207361192e-01 -5.4425825617857093e-01
      -7.8441194675896064e-01 -6.2075279204693068e-01
      -8.5488113776161601e-01 -8.7530135655471186e-02
      -3.4383569244865220e-01 -1.3183824778820084e+00
      3.2254425983880675e-01 1.4834919158086164e+00
      -1.0257752799651274e+00 -1.1777982972272503e+00
      -1.7611542358534877e+00 4.1239217093438935e-01
      -1.9423004116912070e+00 -1.3460625927707996e+00
      1.8196526652428086e-01 4.9387802078416657e-02
      2.4504466340576239e-01 7.6782227682182569e-01
      5.5208404589312565e-01 -1.1320974433970753e-01
      -6.2283771663826404e-01 7.8093982144011503e-02
      -3.9467755424642481e-01 -2.4919607497039514e-01
      -1.5044468848087964e+00 2.3472296300941489e+00
      -9.1398581284702884e-01 1.7743805121104758e-01
      5.9153539598841964e-01 2.5922976721882924e+00
      5.5876715722060166e-01 -3.1850656252066079e-01
      1.7546157376472127e+00 2.2584100719498439e+00
      3.0277250025638285e+00 8.6548049335901229e+00
      -5.1681181011397390e+00 3.3308166956914147e+00
      -8.3323927527635870e+00 1.5524710653804902e-01
      1.6110600656998424e+00 5.5686168554654127e+00
      2.3012736432335261e+00 -5.8594160306375747e+00</_>
    <_>
      1.1369087561487054e-01 -1.0802804699505103e-01
      -8.8569572352485235e-02 -9.0780447025010258e-02
      -1.1499412567951323e-01 5.3002208858311328e-01
      -1.0809789533677611e-01 3.2006660392693470e-01
      7.6788715276882705e-02 -5.6999038961995391e-03
      1.0926203810607771e-02 -3.1830097816462860e-01
      4.2805857183584273e-01 7.3453405824420226e-01
      -9.1761737503315691e-02 -1.0114286750559964e+00
      1.9409168054465159e-01 -5.2440410247715889e-02
      1.0038376947635962e-01 1.3103615153906132e-02
      4.6438733170520781e-02 3.4486929074829142e-02
      -3.1939844028911291e-01 8.1490706904606927e-02
      -2.2482893084587277e-01 -5.0944470949398621e-02
      2.8108149519041822e-02 -1.1838039925548289e+00
      4.7281880023248679e-01 -4.5783450981015650e-01
      3.6909206735025218e-01 5.8716335984655615e-02
      8.3857598414182843e-01 -5.4378388094880541e-02
      -1.3793959354499832e-01 -1.2137852132850618e-01
      -1.3066297298614890e-01 -6.1890476180961197e-02
      -9.2611922982607273e-02 -4.9069071147464800e-03
      2.6707646937675299e-03 -2.6764584271899378e-01
      -4.3505604191610966e-02 7.1231652401926693e-01
      -1.8879090500294268e-01 1.6363380377097153e-01
      -8.6821096201338141e-02 -4.4423287192834060e-01
      1.5513327707205524e-01 5.2909311626372940e-02
      4.7816154202437161e-01 -4.3141598865928760e-01
      -8.2420159208442090e-02 -1.3862274609221717e-02
      -4.1735642119120828e-02 -1.1443484057792917e-01
      -1.7602789785685874e-01 5.9805620493619026e-03
      5.7973088944768492e-01 -1.2905606020289392e-01
      3.1982680694765886e-01 -8.6828490106683739e-02
      3.8583322555629677e-02 2.9131682212632303e-02
      4.1947637602770466e-01 5.6698648993554514e-02
      6.7046009963276379e-02 -3.0338706196056220e-01
      3.8543768141133417e-01 -4.4290040329179339e-02
      -8.5433182912799388e-02 -3.3125506377839405e-02
      9.8382735743706720e-02 -4.7924650469247637e-01
      -1.2839228332186453e-02 -7.1270541806563881e-01
      1.9128657433121721e-01 1.4378091665610726e-01
      2.0487651601686782e-01 -1.0392286199071901e+00
      7.2828623090172095e-01 -4.7320925714360951e-01
      7.9627711020830265e-03 1.0328082897586475e+00
      -2.3054607639763572e-01 2.6839579496599070e-01
      -4.9570940253490368e-02 -2.6756846553971603e-01
      -1.8823917778863467e-01 -2.3752966622456871e-02
      -2.9380184872710507e-01 -5.1954101251172009e-02
      2.1585421516004569e-01 2.0557444990335436e-01
      -2.8531468359498996e-01 1.0014855038577018e-01
      -3.0139392913208418e-01 2.7601806322968730e-01
      3.8314256336738794e-02 -1.5210431829346108e-01
      8.8205774049303354e-02 4.3215546893523055e-01
      -4.8946414978995489e-01 9.2278710387402665e-02
      2.6027052629816316e-01 1.6677211433099354e-01
      4.0114448411889020e-02 1.6728877659471222e-01
      1.0058152694010464e-01 5.6449855242029434e-01
      -3.4257005636143312e-01 -1.7013103575564098e-01
      -1.2056151905379201e-02 2.3854418300466523e-01
      -1.2861889314417754e-01 -4.3814448343476520e-01
      6.2294875758892858e-02 -1.0742034764892935e-01
      3.8059135120316015e-02 -1.6939972755484115e-01
      2.2880487190009821e-01 2.5524278602161848e-01
      1.0549917998510459e-01 1.9280191114635520e-01
      -1.1735658284894694e+00 3.3676138438712577e-01
      7.0997389541941380e-01 3.1199943274806172e-02
      -2.6006884749205383e-01 7.3440816772826725e-02
      1.1904502443178328e-01 -2.0397883511113601e-01
      -8.1037256752722653e-01 4.2138476056875554e-02
      -8.4376804752871126e-02 1.8662687556431701e-01
      1.1126197618411841e-01 -2.4321779223606916e-02
      6.7109526649844445e-02 -6.8434905037727034e-02
      -2.6871601662511874e-02 3.2436977886936124e-03
      3.7800606733896153e-02 1.9554189260650021e-01
      1.8384471252265736e-01 3.5123313911100562e-01
      -1.2123247131079009e-02 -1.1843775455846350e-01
      5.9719366781363442e-02 -6.6259645040728299e-01
      7.4608294409546430e-02 7.8845466709008730e-02
      -3.1860192437274820e-01 -2.3802859104054239e-01
      6.7296924649277081e-03 3.0327987808793963e-02
      1.3522798635321986e-01 -5.1627464437601758e-02
      6.5598582717660614e-01 -9.9467880537453660e-02
      -1.1180731366002709e-01 -3.3769744432846138e-01
      3.8355223837956932e-03 -2.9852030199150942e-01
      1.3376423429267625e+00 6.8408967452706471e-02
      3.7219016013784895e-01 2.3325785553695442e-02
      -1.1608179483390328e+00 -4.0829705635342391e-02
      -1.1375145948559542e+00 -2.3633023650540945e+00
      -2.5162407813714247e+00 -2.0263806630958072e+00
      -1.9936479386902586e+00 1.8776205662199627e-01
      -2.4893282874061904e+00 -4.2289981193122435e+00
      -1.9105416450923107e+00 -8.8126609716419280e-01
      -2.2193397783320121e-01 -2.0815738815338851e+00
      -1.0759643545434149e-01 -2.0394657786545944e+00
      -1.7886777832470961e+00 -1.7200621747128251e+00
      -1.1326403546696728e+00</_></weights></opencv_ml_ann_mlp>
</opencv_storage>
