<?xml version="1.0"?>
<opencv_storage>
<opencv_ml_ann_mlp>
  <format>3</format>
  <layer_sizes>
    20 10 7</layer_sizes>
  <activation_function>SIGMOID_SYM</activation_function>
  <f_param1>6.6666666666666663e-01</f_param1>
  <f_param2>1.7159000000000000e+00</f_param2>
  <min_val>-9.4999999999999996e-01</min_val>
  <max_val>9.4999999999999996e-01</max_val>
  <min_val1>-9.7999999999999998e-01</min_val1>
  <max_val1>9.7999999999999998e-01</max_val1>
  <training_params>
    <train_method>BACKPROP</train_method>
    <dw_scale>1.0000000000000001e-01</dw_scale>
    <moment_scale>0.</moment_scale>
    <term_criteria>
      <epsilon>9.9999999999999995e-07</epsilon>
      <iterations>30</iterations></term_criteria></training_params>
  <input_scale>
    2.1364502971969485e-04 2.1174893175039534e-07 4.2776734080352831e-04
    -5.8665855314639652e-09 5.3110229588945832e-04
    -3.8672075063705961e-08 6.2196477000234435e-04
    -4.3600079988376662e-08 6.3372647943753962e-04
    -6.0619981002149763e-08 7.1744881674292793e-04
    7.4304334271161685e-08 8.2699484850634847e-04
    -7.7819980197405834e-09 9.1430316350646172e-04
    1.6556513763349960e-07 9.6615786248802050e-04
    -1.2346626340125275e-07 1.0872532233487757e-03
    1.1187973341200182e-07 1.0913690028687812e-03
    -5.9550654545542466e-08 1.1958584604867483e-03
    3.9384554539575441e-08 1.3377131799563137e-03
    -2.9402779257071526e-08 1.4573697858950286e-03
    2.1176470051090421e-09 1.4914279885942816e-03
    -9.6173719091651597e-08 1.5748352723188672e-03
    -3.4873595369510856e-08 1.6528673813186209e-03
    3.5858942512099158e-08 1.6912275083085684e-03
    -6.1679181922513020e-08 1.7506427812301348e-03
    9.2618238113414091e-08 1.8677748447050724e-03 1.0257949429261312e-07</input_scale>
  <output_scale>
    5.2631578947368418e-01 4.9999999999999994e-01 5.2631578947368418e-01
    4.9999999999999994e-01 5.2631578947368418e-01 4.9999999999999994e-01
    5.2631578947368418e-01 4.9999999999999994e-01 5.2631578947368418e-01
    4.9999999999999994e-01 5.2631578947368418e-01 4.9999999999999994e-01
    5.2631578947368418e-01 4.9999999999999994e-01</output_scale>
  <inv_output_scale>
    1.8999999999999999e+00 -9.4999999999999996e-01
    1.8999999999999999e+00 -9.4999999999999996e-01
    1.8999999999999999e+00 -9.4999999999999996e-01
    1.8999999999999999e+00 -9.4999999999999996e-01
    1.8999999999999999e+00 -9.4999999999999996e-01
    1.8999999999999999e+00 -9.4999999999999996e-01
    1.8999999999999999e+00 -9.4999999999999996e-01</inv_output_scale>
  <weights>
    <_>
      -7.6816299911227415e-01 1.0442846979257139e+00
      -9.0629164678605045e-01 6.2494521271463344e-01
      -2.8105475525962520e+00 -4.3297626390017602e-01
      8.1237447724258560e-01 -1.4718504745582721e+00
      -2.0372836495378457e-01 1.1368864685664415e+00
      -1.3287060994260382e+00 -1.3751158646455055e+00
      1.0385510422135682e+00 -2.1905730019343244e+00
      -4.2711499074699804e+00 -2.0011004778921859e+00
      1.4945756217310385e-01 -1.4621212062019515e+00
      3.3941210117109083e-01 1.5980342689182994e-01
      -1.0650430617613393e+00 1.9091864674427003e-01
      9.9475281644857250e-01 -3.5922772835982473e+00
      -5.0167386879346731e-01 -1.5063332353668872e+00
      -1.2830544059399625e+00 -2.9165955493777664e+00
      -2.5761917543830248e-01 -4.2354608049018347e-02
      -3.8012250381843167e+00 9.9406952976027341e-01
      -2.8391340956757887e+00 -5.1221582800134069e-01
      1.6462238017809057e+00 1.8180341928162984e+00
      6.8600789993687583e-01 1.5043410924215514e-01
      -6.9673738686400288e-01 -1.5691325983845106e+00
      -2.1632745826779303e+00 7.7657155463077876e-01
      3.9000159287799452e+00 2.8354390182342915e+00
      -2.3035422670524983e-01 1.9659499346872356e+00
      2.2059822230964401e+00 4.5649667077910694e+00
      -8.0929772032843766e-02 1.5708893304551261e+00
      -1.3959699166576971e+00 1.1631354193119584e-01
      2.0238315268296616e+00 -1.9204031788619580e+00
      -1.6103270331858668e+00 -1.5955096700899416e+00
      4.4110819935148377e-01 -3.3697342775567360e+00
      4.9605359901703355e-01 -1.9833950645402356e+00
      -1.0415257603591459e+00 6.3100152620308925e-01
      -2.4404389235760410e-02 -7.8276932002005495e-01
      -2.1162660543047571e-01 -6.2971492564719497e-02
      3.8361439833501342e-02 -3.5010997583342485e-01
      -5.3858988861634727e-01 2.9223444986991454e-01
      -8.4980080334873409e-01 -5.2103778175761728e-01
      1.2374271915953821e+00 -2.7184744983803397e+00
      1.7931050457693026e-01 -5.4210728697173294e-01
      -1.1632882771974223e-01 -1.6713314811513864e+00
      7.2386921567277751e-01 -2.4395691299843327e+00
      4.0710364080961281e-01 -8.2551300788844539e-01
      3.0245223001370686e-01 5.7667255335209544e-01
      5.8660953398379095e-03 6.7316065933413216e-01
      8.6395261103341425e-01 1.5935104011431431e-01
      8.8176720249132312e-01 -7.9458293621318032e-01
      3.5842405338431576e+00 1.0916562527760474e+00
      -1.7691475157286296e+00 3.1600212961181660e+00
      2.3570906254890738e+00 3.5300671952100454e-01
      3.6187611860009222e-01 1.9688055058829144e+00
      1.0922129852896123e+00 -9.7478331933500195e-01
      1.2072946719206373e-01 5.0422100086480914e-01
      -1.0362952548744610e-01 2.2956196910953905e+00
      4.3587424128942881e-01 -8.8857504271656368e-02
      1.0345663122207949e+00 -1.4203516180616660e+00
      -1.3185603885632515e+00 -7.8327448218854534e-01
      -1.2437532122935804e+00 -9.2114689583258946e-01
      2.5877279885921707e-02 2.3589637502343392e+00
      -1.8406007272486449e+00 1.8859851974653727e+00
      4.4972111741865528e-01 8.4842293008879877e-01
      -2.8957130336891694e+00 1.8914531492194413e+00
      2.1891375537568663e+00 1.4132580865118798e+00
      -6.4165183161517747e-01 -3.1992653654006953e-01
      2.2909944121899719e+00 -1.1335574249121894e+00
      -9.6336152249661988e-01 -9.6173153189264204e-01
      9.7808583366240509e-01 -1.2017764807370774e+00
      -2.8508469869259988e-02 5.9046211954975843e-02
      -2.0782265963945523e-01 -1.3086508693627760e-01
      -1.0660127866068148e+00 -4.7044546288291522e-01
      -5.8787884909452182e-01 1.1289002479497874e-01
      1.2075272390010910e-01 1.3639493101348203e+00
      -9.5209229657612549e-01 -5.8018461131023868e-01
      1.2947697485560852e+00 -2.0763930135015385e+00
      -3.4874222830266088e-01 -3.5130817157434929e-01
      -5.6709162470008623e-01 2.3462783306403348e-01
      -8.1341766100907886e-01 -3.8570796848293688e-03
      -5.5485096055347627e-01 -1.8254992510604278e-03
      1.3633930073142936e-01 -4.8351853430647568e-03
      4.0815382105951696e-02 1.3888151120167688e-01
      6.3869922639805254e-01 1.9297499097443122e-01
      -3.9707534169138359e-01 7.9283114652565678e-01
      -1.8565184289272592e+00 -3.9730645153240851e-01
      8.4604444743835228e-01 -1.3684759904833363e+00
      -1.0969054383290453e+00 -4.0531135273467822e-01
      1.5755798836092902e-01 -1.9124174035472405e+00
      -1.6572564691808771e+00 7.0328547944167252e-01
      1.0447968208017924e+00 1.7658411285379747e+00
      -3.2441363033204451e-01 7.4542988621785955e-01
      2.0571553461326806e+00 -1.1130277221442448e+00
      4.8796064985811888e-01 -6.5015029384554543e-02
      1.6273263077074709e+00 -1.5371169582218100e+00
      1.3457862573476744e+00 4.2408202227954150e-01
      -8.5665719646432836e-01 4.5126873688899888e-01
      3.9987387276197717e-01 -6.4934990964203559e-03
      -5.7647227951077851e-02 1.3147606213395640e+00
      5.3399700325589483e-01 -8.0902246142283030e-02
      1.0389723873983003e+00 7.6874719497253041e-01
      -9.9146605800012566e-01 1.3733257276786153e+00
      6.7915035742686169e-01 7.9199084648188667e-01
      -6.1693047370385168e-01 -2.0166856118007176e-01
      -2.0922264256048609e-01 1.8559994666025947e+00
      4.2205080301069114e-01 -3.7630409405234064e+00
      4.3842241454289399e-01 -3.4360545035455897e-01
      -6.2442700694276203e+00 1.5733310537250815e+00
      2.9882698759464903e+00 2.4682412197512513e+00
      2.8774802654047780e+00 2.0784431392129412e+00</_>
    <_>
      -2.6187274446284373e-03 3.6777560912808138e-01
      -7.0909786057204605e-01 2.5716197672076828e-02
      1.7170607492989577e-02 -1.8789535701225937e-01
      4.0423979773903773e-01 -7.6586036749674358e-04
      5.9139662087247601e-02 3.5237650515708235e-02
      -3.9072033502568737e-01 4.6896411289459239e-01
      -8.1385783204989445e-02 -1.1963142859018779e-01
      1.7887194327478686e-03 -4.9505413932839991e-02
      -5.8779496671375597e-01 -3.2791638483104457e-01
      5.5858716592293445e-01 -1.8551100190862527e-01
      6.2842383497120724e-01 -3.5253171964453781e-04
      -4.4336721670688434e-01 7.8657696692712864e-01
      -1.4989239182951550e-01 2.1469716899268709e-01
      -9.1277653878050857e-01 5.6743439574411569e-01
      7.7945784734293985e-04 1.3568638130445871e+00
      -1.0957244822113188e+00 4.5930974096495897e-01
      -5.2104996799303038e-01 -2.6687011852923329e-02
      -2.5116777246323674e-01 -1.3281015915756287e-02
      -3.9141640617826767e-02 -2.9972117877760003e-02
      -6.6212693884690155e-01 8.2044010144193624e-01
      4.3651767165964628e-01 -5.1078730569677699e-01
      -9.5200885976333520e-03 4.0090081176192194e-01
      -3.7383466852270275e-01 -5.7312881462404874e-01
      1.8859975177720070e-01 2.7791348860293502e-01
      -1.1794063560077424e-01 1.7701722899977877e-02
      1.0456153518669460e-01 3.7275167436438666e-01
      -8.2851726468176456e-02 -1.0051924958719742e+00
      4.1631374381765368e-01 2.6421081809606900e-01
      -6.6975979877421342e-03 -3.5720451487738464e-01
      6.1495094725615151e-02 -7.5637975348160108e-02
      -1.3145686734944934e-01 5.6433723295896965e-01
      -6.1037819423953102e-02 -9.4460488259984279e-03
      9.7354970975528383e-03 -4.3097698061772644e-01
      3.8945358596236640e-01 -6.4312341244303761e-01
      4.6026481280862225e-01 5.3803150339253432e-02
      -1.8559109325143228e+00 2.5337755370381626e-01
      -2.1536637766608355e+00 -4.1938631150961214e-01
      -9.6610188206827419e-01 -2.7088078150818142e+00
      -1.5390935889117858e+00</_></weights></opencv_ml_ann_mlp>
</opencv_storage>
