<?xml version="1.0"?>
<opencv_storage>
<opencv_ml_ann_mlp>
  <format>3</format>
  <layer_sizes>
    20 10 2</layer_sizes>
  <activation_function>SIGMOID_SYM</activation_function>
  <f_param1>6.6666666666666663e-01</f_param1>
  <f_param2>1.7159000000000000e+00</f_param2>
  <min_val>-9.4999999999999996e-01</min_val>
  <max_val>9.4999999999999996e-01</max_val>
  <min_val1>-9.7999999999999998e-01</min_val1>
  <max_val1>9.7999999999999998e-01</max_val1>
  <training_params>
    <train_method>BACKPROP</train_method>
    <dw_scale>1.0000000000000001e-01</dw_scale>
    <moment_scale>0.</moment_scale>
    <term_criteria>
      <epsilon>9.9999999999999995e-07</epsilon>
      <iterations>30</iterations></term_criteria></training_params>
  <input_scale>
    2.0969064403762524e-04 2.3700928190739975e-09 3.8411091214801029e-04
    -2.4312575819553601e-08 5.0876287648191488e-04
    1.7251345366818402e-09 5.1449180496307824e-04
    -1.1012537702193980e-08 7.3848550781641304e-04
    3.2709645405585040e-08 7.6801802296464785e-04 1.7361518531282728e-09
    8.6494053451437799e-04 -1.6619634655698903e-08
    1.0449063244107539e-03 2.6573341990426477e-09 1.3235077928150461e-03
    -1.0378050980919033e-08 1.4330812890486647e-03
    -2.5309126272001349e-09 1.7298749900543726e-03
    -2.1996497981444966e-08 1.7492093199264736e-03
    2.7185090410008198e-08 1.9333561866871568e-03 1.6662417855145003e-08
    2.1433597008795545e-03 4.3322866539719369e-08 2.3301064670864877e-03
    3.3867405474842556e-08 2.4134098373339895e-03 2.3783272093885320e-08
    2.7450100696725351e-03 -3.1608061709695267e-08
    2.8235394678373838e-03 -5.5649899484608271e-08
    2.9096189536852611e-03 -2.6720574271525907e-09
    3.4779339232243675e-03 4.3137326012642088e-09</input_scale>
  <output_scale>
    5.2631578947368418e-01 4.9999999999999994e-01 5.2631578947368418e-01
    4.9999999999999994e-01</output_scale>
  <inv_output_scale>
    1.8999999999999999e+00 -9.4999999999999996e-01
    1.8999999999999999e+00 -9.4999999999999996e-01</inv_output_scale>
  <weights>
    <_>
      -1.7238983364553181e-01 7.6166913441762712e-02
      -1.3424059139380884e-01 -3.1202741872402757e-02
      7.7531516778025181e-02 -3.2004839187942774e-01
      -2.4300781260365398e-01 1.1803815329408691e-01
      5.1644492549353077e-02 9.7192543330627018e-02
      -2.7702423746478844e-01 2.0913344728613636e-01
      -1.4773427888207002e-01 8.3056737775708628e-02
      6.1701342436529771e-01 -7.2682176923732134e-01
      -6.5199351234821490e-01 4.5135686528582836e-01
      3.3005143524120678e-01 2.2408174527629587e-01
      -3.3893750667394758e-02 -6.6513189311413604e-02
      5.4140316199092202e-02 -3.7755976370311341e-02
      -1.0608443208043981e-01 8.5849428360112556e-02
      1.4028017045725424e-01 -5.2921188316673126e-02
      -6.0480925714882540e-03 2.0749159150305631e-03
      5.0849610004325821e-02 4.9250130788735830e-02
      7.5951152165050053e-03 5.7833028390296776e-02
      -8.8782322744702588e-02 2.5001939439794080e-01
      2.4426425139830171e-01 -2.7717652623236839e-02
      -2.6096048319275013e-02 -1.4525773551861404e-02
      -1.6817173498624347e-01 9.6041697728818973e-02
      -1.5015080208579132e-01 3.4854283335222107e-02
      2.0629838693144545e-01 -3.5150887423961386e-01
      -1.7315079014579229e-01 1.8540883184106385e-01
      8.1971166398636372e-02 1.7885697144170470e-01
      1.0118217875784184e-01 -2.5388744797707904e-02
      6.6184668337744432e-02 -1.0626829487222229e-01
      -1.3717667497067626e-01 4.0715843328633405e-01
      1.3805814284733983e-01 -1.2506314607118393e-01
      -1.6327104365573042e-01 -5.4222684220978118e-02
      1.0412814532811979e-01 4.8470249195986708e-03
      1.0725379487266182e-01 -5.9144172877039269e-02
      -9.6117833271250258e-02 1.1840873860847935e-01
      1.1861571077486106e-01 -5.4502345402260462e-02
      -4.0235851364073850e-02 -5.4898191801019090e-02
      -4.6815596454692805e-03 -1.7817847279061800e-03
      3.8675459863022024e-02 -1.3086042434245554e-01
      1.6340766143153201e-02 1.6327638098094194e-01
      5.0375976632607816e-02 -4.3008050083346008e-03
      -5.4940278769242908e-02 -3.5120435906033719e-02
      2.3605661958541992e-02 -1.1475326401083642e-01
      7.0132980832839642e-02 -1.7482325738125234e-02
      -1.5445208511132388e-01 1.6312620986822141e-01
      1.8158207605866108e-01 -4.3525592221830736e-02
      -8.0423973071262256e-02 2.0263744731865003e-02
      -8.7335921960108809e-02 -3.0752503592198083e-02
      -4.8440651614563943e-02 1.7110406809951111e-02
      -3.5281545089205196e-02 -3.4471263330053112e-02
      2.7452069854021204e-02 -7.6727223779541734e-02
      1.2242841841501746e-02 4.0268216240611936e-02
      2.4653788619879428e-02 2.0408999679868398e-02
      9.6414997716181366e-02 5.9192827980355488e-02
      -1.2845216926328570e-01 1.9617441751657078e-01
      1.1765250510861819e-01 -1.0244311589125610e-02
      2.3754831878866116e-02 1.5555157164473499e-02
      -5.0345845353146713e-02 -3.3544779195005051e-02
      -3.7389440056947568e-02 -1.5623993759953462e-02
      4.2823752299757614e-02 1.4002680023627812e-02
      -1.8009170977926599e-02 -9.0385685644819150e-02
      5.0420337800642550e-03 -1.5190894353892339e-02
      7.9904776415343159e-02 -7.0550250171495200e-03
      3.8226277443492371e-02 -1.3471457243374679e-01
      -6.5159233706149178e-02 8.3724430875050257e-02
      7.8703638554414035e-02 -3.7721917031383813e-02
      -1.4257021351138777e-01 3.6061848358840028e-02
      1.6188672883743330e-02 -2.2396587286211508e-02
      7.3608916262566090e-02 -4.9110746048062551e-02
      -1.2251179942624263e-01 1.5513295490475187e-01
      1.7708586831702070e-02 1.3615121181818868e-02
      -7.5221958882240342e-02 5.0513361346647391e-02
      5.2600142722344936e-02 -1.2361145131877731e-02
      -4.8960838859522619e-02 1.3005661669832882e-02
      -5.2802724891899307e-02 6.4054776354481563e-02
      -7.9249363891673599e-02 -6.8187261818428449e-02
      -5.7550715347909440e-02 -8.5937374351177806e-02
      -2.9273136931064262e-02 -8.1145750677587308e-02
      5.9770921122819787e-03 -7.4457558136722573e-03
      -6.9420300275566782e-02 1.2970197375050174e-01
      3.8274201123494403e-02 9.6796570081461725e-03
      -7.8895589091916452e-03 -9.3533964687898402e-02
      -6.5796280931532836e-02 -6.3832054243503744e-02
      -4.6753042958285855e-02 1.3951031768411125e-03
      5.9763482601305901e-02 1.8768369251287317e-02
      -1.0974817719661292e-01 -6.4473844571203559e-02
      -9.9228047066548010e-03 1.5281386758203015e-03
      -4.3240646681363432e-02 5.0547051322699571e-02
      -1.0602331359237772e-01 5.7089358060198978e-02
      5.8796786651504479e-02 6.2817574922648056e-02
      -1.2502278570950376e-02 6.2983573817786895e-02
      -3.9482313458720809e-02 6.7465800084688859e-02
      2.2038747503044221e-03 -1.9270959257262242e-03
      -3.4795332763197871e-02 6.3683124507576586e-02
      9.4038133546201719e-02 -5.3613695553991605e-02
      2.0633447986070842e-02 6.2003271995200532e-02
      3.5962242989054684e-02 -7.3634652195795165e-03
      6.2685488158562069e-03 4.3178501052094052e-02
      -3.7279885118642109e-02 5.6426389374579819e-02
      -3.8643066189432689e-02 -2.0686448499745439e-02
      2.7333133102420297e-02 4.0559437226845414e-02
      1.4460008585448617e-02 -2.4417002764259826e-02
      3.7935551761528874e-01 -7.8854124523423275e-02
      1.1384268259086788e-01 -1.4369240667471014e-01
      -6.4128648633698837e-01 8.8852711860467226e-01
      6.1172107012450128e-01 -4.4354382360514327e-01
      -4.9252263095754256e-01 -3.2202696438548017e-01</_>
    <_>
      -6.7136122992151226e-01 -5.3865632722762097e-02
      2.9844177267295646e-01 8.1048210478494587e-02
      2.0187580368313107e-01 5.4498203425188596e-01
      3.7927894445844212e-01 1.6061927710365423e-01
      6.9196178399298658e-01 -4.5523606957827345e-01
      -9.8468344699850496e-01 7.4119115048755335e-01
      -5.6252631081178173e-01 6.5630323063043283e-01
      3.6939325494509273e-01 -4.2506772033490614e-01
      -1.1109064879681545e-01 -9.2143609253586123e-01
      5.3662281264029207e-02 -4.9936550683740777e-01
      -1.5946548482220349e-01 1.1596144157802493e-01</_></weights></opencv_ml_ann_mlp>
</opencv_storage>
