<?xml version="1.0"?>
<opencv_storage>
<opencv_ml_ann_mlp>
  <format>3</format>
  <layer_sizes>
    20 10 6</layer_sizes>
  <activation_function>SIGMOID_SYM</activation_function>
  <f_param1>6.6666666666666663e-01</f_param1>
  <f_param2>1.7159000000000000e+00</f_param2>
  <min_val>-9.4999999999999996e-01</min_val>
  <max_val>9.4999999999999996e-01</max_val>
  <min_val1>-9.7999999999999998e-01</min_val1>
  <max_val1>9.7999999999999998e-01</max_val1>
  <training_params>
    <train_method>BACKPROP</train_method>
    <dw_scale>1.0000000000000001e-01</dw_scale>
    <moment_scale>0.</moment_scale>
    <term_criteria>
      <epsilon>9.9999999999999995e-07</epsilon>
      <iterations>30</iterations></term_criteria></training_params>
  <input_scale>
    2.0813909580925507e-04 -1.1455830106614435e-07
    3.4865909960575574e-04 3.4415606504625704e-08 3.9158669862991886e-04
    -5.6564647629240399e-09 5.6073609447921215e-04
    2.6405241265462440e-08 6.4316451945481043e-04
    -1.6644121693638039e-08 6.9574921190149457e-04
    2.7891354226702947e-08 8.0779679887739788e-04
    -5.9887245217067149e-08 8.8416944829630782e-04
    6.0257638546228764e-08 9.8383521366510749e-04 1.3487985393099426e-08
    1.0666518819438464e-03 3.4396224627298920e-08 1.0938920566465487e-03
    3.9340863124618391e-09 1.2141550206287060e-03 5.9143390971609339e-08
    1.2664645763163320e-03 -7.5186564501337285e-08
    1.3103163384624911e-03 3.5519613234782163e-08 1.4166946276594626e-03
    2.1415885880989387e-08 1.4821874974002825e-03
    -3.1797422040361400e-09 1.6293564153564122e-03
    -4.4923939623563523e-08 1.6748458255175780e-03
    8.2835767811416141e-08 1.6962509150529423e-03 3.8222868001787764e-08
    1.7186116379024976e-03 -4.4638960592763716e-08</input_scale>
  <output_scale>
    5.2631578947368418e-01 4.9999999999999994e-01 5.2631578947368418e-01
    4.9999999999999994e-01 5.2631578947368418e-01 4.9999999999999994e-01
    5.2631578947368418e-01 4.9999999999999994e-01 5.2631578947368418e-01
    4.9999999999999994e-01 5.2631578947368418e-01 4.9999999999999994e-01</output_scale>
  <inv_output_scale>
    1.8999999999999999e+00 -9.4999999999999996e-01
    1.8999999999999999e+00 -9.4999999999999996e-01
    1.8999999999999999e+00 -9.4999999999999996e-01
    1.8999999999999999e+00 -9.4999999999999996e-01
    1.8999999999999999e+00 -9.4999999999999996e-01
    1.8999999999999999e+00 -9.4999999999999996e-01</inv_output_scale>
  <weights>
    <_>
      -3.2762488544864793e-01 3.7653822849599450e-01
      -1.2152097600228264e+00 9.2722814034336609e-01
      1.7699782657778924e+00 -5.3892847429376323e-01
      9.1949342193328154e-01 -6.3767912294456608e-02
      -1.0164873540976440e+00 -1.0133815594771967e+00
      9.1048448234971646e-01 3.7975301071856127e-01
      1.3882129094199738e-02 4.1433163311109561e-01
      4.6560842215795301e-01 -1.0681513563341964e+00
      -9.9479635240642489e-02 -5.6437408322920546e-02
      -1.4578181800698837e+00 9.6289705945138623e-02
      2.3206663061081678e+00 -5.4602787179606027e-01
      -7.5339538626385472e-01 2.4250072526398676e+00
      2.0173674060136881e+00 8.6045492241319399e-01
      1.1472477877131738e-01 -4.8773039938588503e-02
      1.7785927632178582e+00 7.3913613795204680e-01
      -1.7468773123333143e+00 -1.2859458336393204e-01
      1.3137256630862482e+00 6.1593195703866144e-01
      -8.2688047815806243e-01 5.2276527376923043e-01
      6.4728312457690951e-01 1.4922659846977859e-01
      -1.8237475467959405e+00 5.8611275784941730e-01
      -6.7881914962231693e-01 -5.0461907111214721e-01
      -7.2330221855890720e-01 1.3072269250744364e+00
      1.4887145255758270e+00 1.5008167559948442e+00
      7.8878758779807812e-01 7.6763114512709701e-02
      1.4030073471353710e-01 -6.1320808755893785e-01
      9.1717714049786188e-03 4.0632363164986590e-01
      -1.6552189704667344e+00 7.2009513169495587e-01
      6.5651986020249997e-01 5.1878493469756093e-01
      1.9606836741494230e-01 -6.1271214089123251e-03
      -6.7275252658363227e-01 -1.3232205817364513e+00
      -2.0894875680925595e-01 1.2078639581606894e+00
      -5.9563491144861902e-01 -1.1741175436036415e+00
      -1.0894380326187176e+00 -2.5706621062862545e-01
      -9.6189935966163087e-01 5.3897603133679561e-04
      6.3453795601370533e-01 -1.5522799986583233e+00
      4.0412509079978920e-01 -6.9108124550434413e-01
      -3.9461924240124335e-01 3.5336282978336203e-01
      6.3059960853334407e-01 -5.7844849108494145e-01
      6.8843494629445012e-01 1.0963119826548667e-01
      -1.1166199907815193e+00 1.1819605038260703e+00
      2.2330254494168980e+00 -8.0577030898049740e-01
      -1.3434318537345846e+00 -1.6497438185584319e+00
      8.7983716552362479e-01 -7.7146477921413592e-01
      -7.2846180130087826e-02 1.0816411977949621e-01
      2.1485125743946598e-01 -6.0835065074016559e-01
      -8.8287569057450599e-01 9.8639238512979766e-01
      -6.2019896570348199e-01 -1.5518434545830753e-02
      -1.4980936440725326e-01 -4.9559633259590125e-01
      -1.8691837795244762e-02 -4.8254702198403193e-02
      -1.7356670048137315e-01 -1.6842858013480331e+00
      -1.3591480843172457e+00 4.9300234418949973e-01
      4.2599389753712269e-01 1.1358457645372970e+00
      3.9992610049913885e-01 3.1355353908719286e-01
      -5.9729513350574448e-01 -3.8484987996866130e-02
      1.3765552284322971e+00 -5.6571818466053048e-01
      -2.0337685752078642e+00 1.3446572789658917e+00
      -1.5794483214512267e+00 3.6608600448820902e-02
      7.0784887750461811e-01 4.9630894597735509e-01
      4.5084917086736598e-01 1.7805738259249004e-01
      5.1460691905815015e-01 -2.2403247170828386e+00
      -1.7175536253034369e+00 7.0541160983499296e-01
      -5.7420488101408512e-02 5.7268501271865413e-01
      2.8233555960237355e-01 -3.9694378425755783e-01
      -8.3097635107726900e-02 -2.2369269846821299e-01
      4.4934812464759392e-04 -1.1592429003369806e+00
      7.6913922592045281e-01 -2.1227597209946217e-01
      -2.7829129610198416e-01 1.0302314539099342e+00
      -2.9085143673949593e-01 8.4521752974270493e-03
      -4.4415624338697357e-01 2.2933627009497545e-01
      4.1063897149376316e-01 -3.7467888647106262e-01
      1.5064855874755032e+00 -5.5618176624524018e-01
      2.7533441465955527e-01 6.0945953028877187e-01
      3.6100276640560292e-01 1.1199223280131674e-02
      -1.1906565581568232e-01 -1.8138899813003582e-03
      1.4756828146629344e-01 1.2661158434263748e+00
      7.1897900183556418e-01 4.4115387388983290e-01
      -2.2721146600080858e-01 -7.5470714183635745e-01
      4.2248426004466727e-01 -3.9219274513184282e-01
      -2.9438130600631079e-01 -7.1880640169497537e-02
      4.3075565505625163e-01 -1.3904582481954801e+00
      5.5979176952038534e-01 1.1325079338150859e+00
      -4.4831903440520382e-01 -3.1046158354781875e-02
      2.2931643725218145e-01 4.8735896441962717e-02
      -6.8873021975543111e-02 -2.0998528309330761e-01
      -1.9022193473394525e-01 -1.1883613543281872e+00
      -7.9801933931863500e-01 4.6992836632385271e-01
      4.2096451190952622e-01 -1.0089077270781952e+00
      -5.3787695684352810e-01 -5.2190353446662251e-02
      4.2524942308797276e-02 -4.1320988691101117e-02
      1.2247686234139271e-01 -3.2585994930603018e-01
      5.7784324344100080e-01 -2.6233907731532635e-01
      3.4848793723298083e-01 5.3325244859764376e-01
      1.0125876574489813e-01 -3.4212299466316204e-01
      -3.2088273726658473e-01 1.6591486819111219e-02
      5.9707712018163196e-02 2.3131126060004292e-02
      -6.5817566346110312e-01 8.0916260081341695e-01
      -2.6548088463318764e-01 -3.9724921269574542e-01
      -3.1680573014755070e-01 2.5576276884258647e-01
      4.3095901864568570e-01 -9.4823666546409155e-02
      -8.9024776243777815e-01 -6.8081584871731937e-01
      1.5233581820358180e+00 1.3651015213464128e+00
      -1.4868393465991037e+00 7.3714959043542838e-01
      4.8279110266886666e-01 -1.0763654534291842e+00
      -3.6011134482838753e-03 -2.4518220547513270e+00
      -3.5652689805794990e-01 8.9579378177585611e-01</_>
    <_>
      6.8488866788120134e-02 -6.4382722995624020e-01
      3.1441194291559776e-01 -5.9617029563666590e-01
      5.5600721079455373e-01 4.7675391278417856e-01
      -3.0121159062952690e-01 6.5630264447412778e-01
      2.1277235617316678e-01 -2.7888338832098730e-01
      -4.7636669323066910e-01 3.3446931280346992e-01
      -4.9840768337555363e-01 -6.0011877288577570e-02
      -3.0448645589351542e-01 -1.2648160250050144e-01
      7.8140145592630972e-01 2.8005675901147103e-01
      -2.0966271680838314e-01 -4.7025621010168089e-01
      -4.3977104955977514e-01 2.2393602156526457e-01
      6.8273978581738604e-01 3.3795047202478251e-02
      -8.4611338115324353e-01 1.8755364040626288e-01
      3.0842639521837784e-01 5.0410638613261127e-01
      -5.4060926735665260e-01 4.9074477041285891e-01
      -2.0286181968732062e-01 3.7152435036155940e-01
      -4.8560511522967187e-01 1.1092163590982000e-01
      -3.1580773672944723e-01 8.3010506061153777e-01
      1.6822684919778061e-01 -8.2950100086725898e-01
      6.1057278728277931e-01 -5.4668856621064799e-01
      4.7315578687789567e-01 -5.2797036277075160e-02
      2.9899734436459524e-01 4.4964416579517541e-01
      6.2144070964779374e-01 2.4213846838399761e-01
      1.8649489370717212e-01 2.8289093724143261e-01
      5.1444482567243244e-01 -2.9666308783228496e-01
      -2.7905587151066424e-01 -6.1282501261938671e-01
      -2.7769836200544698e-03 4.1529982992095338e-01
      -4.4410020814981632e-01 1.0577696835150763e+00
      5.2481008735402523e-01 -7.3594399971059776e-01
      -7.5144947536352125e-01 3.1799565770282373e-01
      -7.9584701625139453e-01 -9.7716604867083312e-01
      -1.3636081894637704e+00 -5.4696943301714873e-01
      -8.4079946640972836e-01 -8.7118174282708483e-01</_></weights></opencv_ml_ann_mlp>
</opencv_storage>
